<?xml version="1.0"?>
<opencv_storage>
<hog_head type_id="opencv-object-detector-hog">
  <winSize>
    48 48</winSize>
  <blockSize>
    16 16</blockSize>
  <blockStride>
    8 8</blockStride>
  <cellSize>
    8 8</cellSize>
  <nbins>9</nbins>
  <derivAperture>1</derivAperture>
  <winSigma>4.</winSigma>
  <histogramNormType>0</histogramNormType>
  <L2HysThreshold>2.0000000000000001e-01</L2HysThreshold>
  <gammaCorrection>0</gammaCorrection>
  <nlevels>64</nlevels>
  <SVMDetector>
    -2.74289995e-02 -4.18499997e-03 -5.93230017e-02 -6.59030005e-02
    -2.43549999e-02 7.49300001e-03 -3.22300009e-02 -1.47500001e-02
    8.49999997e-05 8.84260014e-02 1.49997994e-01 6.65550008e-02
    1.10539999e-02 4.53829989e-02 6.87709972e-02 -5.34400018e-03
    -2.33539995e-02 8.45600013e-03 -1.26620000e-02 1.37548000e-01
    2.49320999e-01 1.89669997e-01 2.07959991e-02 2.70500011e-03
    -1.19179999e-02 -2.01580003e-02 -1.86880007e-02 1.59959003e-01
    2.85405993e-01 2.78674006e-01 1.27149999e-01 -3.20599996e-03
    -3.04680001e-02 -5.73900007e-02 -6.49190024e-02 -5.19389994e-02
    1.50459006e-01 1.60116002e-01 1.51570002e-02 -2.26399992e-02
    5.54199982e-03 3.21719982e-02 -4.79770005e-02 -5.88149987e-02
    4.87329997e-02 2.15223998e-01 1.52351007e-01 -6.90700021e-03
    9.30500031e-03 4.09770012e-02 5.76660000e-02 -4.23219986e-02
    1.35890003e-02 1.59647003e-01 1.85868993e-01 3.01420987e-01
    1.24996997e-01 -4.89780009e-02 -1.27522007e-01 -8.53469968e-02
    -1.30426005e-01 -1.53116003e-01 -9.35399979e-02 2.12503001e-01
    1.82677001e-01 4.65440005e-02 -5.56269996e-02 -8.99450034e-02
    -4.78719994e-02 -1.09647997e-01 -7.79680014e-02 4.46569994e-02
    1.35034993e-01 4.08120006e-02 -6.34879991e-02 -3.30459997e-02
    -2.55300011e-03 -1.15729999e-02 -9.08159986e-02 1.66180003e-02
    1.52007997e-01 1.74851999e-01 6.07380010e-02 -4.37150002e-02
    -9.16999998e-04 -9.74499993e-03 -1.55339995e-02 -2.46290006e-02
    9.34680030e-02 1.90409005e-01 1.69853002e-01 1.29081994e-01
    -4.41810004e-02 -1.17187999e-01 -1.55451998e-01 -1.14632003e-01
    -1.27450004e-01 -1.92869995e-02 4.03349996e-02 1.91073999e-01
    1.28935993e-01 -4.79910001e-02 -9.51529965e-02 -1.13747001e-01
    -6.37649968e-02 -3.67299989e-02 8.84160027e-02 1.62166998e-01
    1.31459996e-01 2.70470008e-02 -1.25529999e-02 1.92230009e-02
    -3.59239988e-02 -4.91489992e-02 -4.46810015e-02 8.64629969e-02
    1.60440996e-01 3.92550007e-02 6.99899998e-03 4.79269996e-02
    7.41180032e-02 -3.27959992e-02 -7.85140023e-02 -4.83400002e-02
    6.97769970e-02 7.57329985e-02 1.28405005e-01 4.30650003e-02
    -8.76239985e-02 -1.08139999e-01 -1.31855994e-01 -6.96479976e-02
    -7.24999991e-04 1.14164002e-01 2.00340003e-01 6.93079978e-02
    -5.36619984e-02 -8.10699984e-02 -6.25649989e-02 -1.28933996e-01
    -8.06109980e-02 2.22030003e-02 1.65876001e-01 1.76064000e-01
    -3.09810005e-02 1.02070002e-02 9.52759981e-02 1.50941998e-01
    3.64300013e-02 -2.62579992e-02 -3.78249995e-02 3.52430008e-02
    1.33539997e-02 -1.36920005e-01 -9.45500005e-03 1.32489994e-01
    1.19686998e-01 3.07699991e-03 -8.63410011e-02 -8.58960003e-02
    -7.50499964e-02 -1.44348994e-01 -2.97800004e-02 -6.06280006e-02
    3.41299991e-03 1.25620002e-02 -6.36209995e-02 -1.43210003e-02
    5.00189997e-02 1.77401006e-01 9.55599993e-02 -1.28635004e-01
    -7.32650012e-02 3.44180018e-02 3.26410010e-02 -4.30000015e-02
    -2.22650003e-02 4.47980016e-02 8.07290003e-02 -3.76189984e-02
    -4.09869999e-02 1.62378997e-01 3.77077997e-01 3.22582006e-01
    5.54520003e-02 -6.19149990e-02 -6.21739998e-02 -8.05969983e-02
    -5.08919992e-02 6.15999976e-04 2.26026997e-01 3.35096985e-01
    1.44988000e-01 -7.33029991e-02 -8.29150006e-02 -9.44060013e-02
    -1.16157003e-01 -1.60088003e-01 -8.44639987e-02 4.79950011e-02
    3.29118013e-01 3.86556000e-01 1.58675000e-01 7.51700019e-03
    -8.46010000e-02 -1.22281000e-01 -9.11770016e-02 -1.52659997e-01
    -1.65219996e-02 1.50001004e-01 1.10165998e-01 -2.86270007e-02
    -4.56480011e-02 -1.05564997e-01 -1.35371998e-01 -1.56074002e-01
    1.15585998e-01 2.04961002e-01 1.98528007e-01 5.88379987e-02
    -5.96619993e-02 -3.42749991e-02 -4.52959985e-02 -7.42110014e-02
    -9.03199986e-02 1.25459999e-01 1.92902997e-01 1.45106003e-01
    3.94079983e-02 -5.31620011e-02 -2.13899999e-03 -3.76579985e-02
    -4.20139991e-02 -4.89480011e-02 -1.03488997e-01 1.15850000e-02
    8.79869983e-02 3.87360007e-02 -3.13250013e-02 -3.97580005e-02
    -6.41689971e-02 -7.31279999e-02 -1.26022995e-01 -4.91259992e-02
    4.93439995e-02 5.68340011e-02 4.09509987e-02 -3.51030007e-02
    -1.46800000e-03 -5.32100014e-02 -8.01870003e-02 -1.31487995e-01
    7.29719996e-02 1.19290002e-01 5.87100014e-02 9.49699990e-03
    -6.33879974e-02 -9.21100006e-03 -1.61220003e-02 8.23100004e-03
    -2.88420003e-02 1.09825000e-01 1.53564006e-01 8.49009976e-02
    4.30440009e-02 -8.08199961e-03 9.49539989e-02 6.65090010e-02
    7.61549994e-02 6.92420006e-02 -4.82899994e-02 2.99360007e-02
    -7.97499996e-03 -9.74799972e-03 -4.63819988e-02 2.35900003e-03
    -4.64630015e-02 -7.19079971e-02 -1.21361002e-01 -4.41400008e-03
    2.42960006e-02 4.33829986e-02 7.13699982e-02 3.08699999e-02
    1.08062997e-01 2.18020007e-02 -7.23999983e-04 -5.70710003e-02
    7.65070021e-02 2.24530008e-02 -3.09430007e-02 -3.43960002e-02
    -4.67149988e-02 6.31280020e-02 7.18469992e-02 1.27357006e-01
    1.49254993e-01 5.34630008e-02 -4.18200009e-02 1.16200000e-03
    9.17199999e-03 -2.75650006e-02 3.91350016e-02 9.62319970e-02
    1.97741002e-01 1.65044993e-01 -9.80299991e-03 -1.47599997e-02
    1.88800003e-02 4.55459990e-02 3.32759991e-02 5.78630008e-02
    3.60699999e-03 -2.23890003e-02 -1.30550005e-02 -3.61879990e-02
    -5.22969998e-02 -4.83499980e-03 6.93000033e-02 3.73740010e-02
    5.58470003e-02 1.25610000e-02 2.89229993e-02 -7.67000020e-03
    -7.93009996e-02 -7.99430013e-02 -2.94189993e-02 -1.46469995e-02
    -3.57809998e-02 1.16010001e-02 9.94239971e-02 1.96503997e-01
    7.93860033e-02 -1.28867000e-01 -7.93870017e-02 2.06460003e-02
    2.64940001e-02 -1.93230007e-02 4.59589995e-02 1.73489004e-01
    1.38276994e-01 -8.39299988e-03 -1.06083997e-01 -9.37279984e-02
    -5.68999983e-02 3.12779993e-02 3.37309986e-02 5.81220016e-02
    3.83800007e-02 6.36069998e-02 -3.88329998e-02 -1.22960001e-01
    -1.27596006e-01 -7.66469985e-02 -1.62659995e-02 2.45319996e-02
    8.77519995e-02 1.37715995e-01 1.09066002e-01 -2.24520005e-02
    -7.92390034e-02 -8.04869980e-02 1.57702997e-01 3.41574013e-01
    2.63590991e-01 1.77231997e-01 -2.25079991e-02 -8.50450024e-02
    -5.93749993e-02 -1.26866996e-01 -8.39579999e-02 2.34919991e-02
    8.75060037e-02 2.91760005e-02 2.38039996e-02 -4.56749983e-02
    -9.83960032e-02 -1.03591003e-01 -1.10711999e-01 -1.06950998e-01
    -2.51490008e-02 2.06946000e-01 2.63209999e-01 2.95249999e-01
    1.70940995e-01 -3.33959982e-02 -7.44099990e-02 -1.19424000e-01
    -9.56560001e-02 -5.66029996e-02 5.29490001e-02 4.43309993e-02
    1.21642001e-01 6.39109984e-02 -8.94999970e-03 -9.39750001e-02
    -6.11159988e-02 -4.18879986e-02 1.63979996e-02 4.44989987e-02
    1.96170006e-02 3.72789986e-02 -1.53510002e-02 -1.44619998e-02
    -4.19050008e-02 -1.01930998e-01 -1.15090003e-02 3.71199995e-02
    6.52690008e-02 -2.11180001e-02 4.37779985e-02 -4.98699993e-02
    -6.15460016e-02 -1.03439003e-01 -7.82359987e-02 -7.68470019e-02
    -3.28000002e-02 5.74029982e-02 3.92379984e-02 9.76490006e-02
    9.74219963e-02 2.13089995e-02 -3.64699997e-02 -1.18104003e-01
    -6.75180033e-02 -2.25299993e-03 5.75009994e-02 2.99549997e-02
    9.05060023e-02 9.48780030e-02 5.61010018e-02 -8.03309977e-02
    -9.64649990e-02 -9.00399964e-03 -9.82800033e-03 -1.11199999e-02
    -5.28259985e-02 7.51829967e-02 2.18969993e-02 -5.26999997e-04
    -7.85359964e-02 1.30449999e-02 6.46890029e-02 5.37809990e-02
    7.18920007e-02 1.19169997e-02 1.13958001e-01 1.00635000e-01
    7.17109963e-02 2.30950005e-02 -1.12218998e-01 -1.52489999e-02
    2.38540005e-02 3.58520001e-02 -2.62260009e-02 6.45579994e-02
    5.30649982e-02 1.89960003e-02 -7.17519969e-02 -1.62700005e-03
    6.82400018e-02 1.08374998e-01 1.19416997e-01 5.16530015e-02
    1.22106001e-01 1.14661999e-01 9.98229980e-02 3.51030007e-02
    1.92029998e-02 -6.12800010e-03 1.35610001e-02 2.10599997e-03
    -5.93880005e-02 -2.97909994e-02 -5.75800007e-03 -2.66300002e-03
    2.22759992e-02 -1.13909999e-02 -3.51140015e-02 2.51460001e-02
    9.63340029e-02 6.30939975e-02 9.15689990e-02 -1.27259996e-02
    -2.95749996e-02 -5.36089987e-02 3.44339982e-02 -6.52300008e-03
    9.32199974e-03 3.14930007e-02 -2.12290008e-02 3.37609984e-02
    2.20410004e-02 3.03930007e-02 3.37750018e-02 4.37429994e-02
    4.43530008e-02 1.12149000e-01 1.25745997e-01 7.56630003e-02
    9.77350026e-02 6.44889995e-02 5.11250012e-02 4.13500005e-03
    -8.28680024e-02 -6.42279983e-02 -2.85640005e-02 6.26240000e-02
    3.63029987e-02 7.70910010e-02 -1.91800005e-03 -5.00519983e-02
    -1.08465999e-01 -1.38330996e-01 -9.54789966e-02 -1.86039992e-02
    6.01800010e-02 5.80210015e-02 8.68609995e-02 3.46160010e-02
    -3.48230004e-02 -1.20154001e-01 -5.62800001e-03 3.36049981e-02
    8.84020030e-02 1.24862000e-01 6.33860007e-02 8.67939964e-02
    2.68660001e-02 -6.09999988e-05 -4.60439995e-02 -2.08240002e-02
    6.19920008e-02 1.14160001e-01 1.34546995e-01 8.89839977e-02
    9.54459980e-02 -2.61509996e-02 -3.71939987e-02 -9.61629972e-02
    -1.30232006e-01 -1.03759997e-01 -1.27836004e-01 -2.42839996e-02
    1.51054993e-01 3.43484014e-01 2.89018005e-01 2.03399989e-03
    -1.24986000e-01 -1.43952996e-01 -1.02213003e-01 -1.06973000e-01
    -5.68680018e-02 -3.02050002e-02 1.29351005e-01 1.58709005e-01
    3.01740002e-02 -1.15653999e-01 -8.69159997e-02 -6.14770018e-02
    -8.95079970e-02 -3.66239995e-02 4.93680015e-02 2.67197013e-01
    3.46374989e-01 1.57446995e-01 -3.06839999e-02 -7.92450011e-02
    -7.31839985e-02 -9.18340012e-02 -3.90259996e-02 -2.08730008e-02
    1.94000006e-01 3.49321991e-01 2.56740987e-01 8.52710009e-02
    -1.27158001e-01 -9.90089998e-02 -9.32160020e-02 -3.00670005e-02
    -5.19220009e-02 7.58450031e-02 1.42223999e-01 8.10739994e-02
    -7.17770010e-02 -1.17275998e-01 -8.05390030e-02 -4.10690010e-02
    -2.09190007e-02 -5.25720008e-02 2.56919991e-02 7.83900023e-02
    7.98970014e-02 -4.23839986e-02 8.96000024e-03 -4.49279994e-02
    -6.48960024e-02 -3.13100009e-03 -1.30049996e-02 8.19140002e-02
    1.90118000e-01 2.59342015e-01 1.48967996e-01 -1.81949995e-02
    -3.85919996e-02 -3.34170014e-02 -2.61289999e-02 -4.40809987e-02
    6.28580004e-02 1.57386005e-01 2.10632995e-01 1.23660997e-01
    -1.54092997e-01 -9.36440006e-02 -4.29540016e-02 -2.69099995e-02
    -9.04589966e-02 -1.79609992e-02 -3.35799996e-03 2.53100004e-02
    -5.12209982e-02 -9.11080018e-02 7.11400015e-03 4.82890010e-02
    7.86309987e-02 1.16349999e-02 3.99000011e-02 9.71699972e-03
    8.88499990e-03 -2.74069998e-02 -2.59039998e-02 1.48999998e-02
    -1.91610008e-02 -3.16289999e-02 -6.90549985e-02 -1.12880003e-02
    5.89470007e-02 1.24660999e-01 8.22390020e-02 7.37069994e-02
    1.38527006e-01 1.18690997e-01 8.64460021e-02 2.07070000e-02
    6.63539991e-02 9.07030031e-02 1.66547000e-01 1.55926004e-01
    -6.95559978e-02 -3.17070000e-02 -1.78800002e-02 2.42780000e-02
    -4.43180017e-02 3.38099990e-03 -2.97979992e-02 -7.61879981e-02
    -6.25300035e-02 1.84460003e-02 4.89620008e-02 3.64819989e-02
    3.81149985e-02 -3.00910007e-02 1.06330002e-02 -1.17159998e-02
    -7.40889981e-02 -3.73080000e-02 1.31460994e-01 1.47893995e-01
    1.09711997e-01 4.05649990e-02 -6.45940006e-02 -2.10219994e-02
    -1.69179998e-02 4.74289991e-02 7.63209984e-02 1.80344000e-01
    2.34240994e-01 1.31494001e-01 7.04739988e-02 -8.58400017e-03
    4.01090011e-02 2.75819991e-02 1.71889998e-02 9.53920037e-02
    8.26200005e-03 6.47780001e-02 4.27130014e-02 -2.83399993e-03
    -6.80769980e-02 -4.62500006e-02 -6.22339994e-02 -9.11789984e-02
    -8.03899989e-02 -1.56210000e-02 1.14146002e-01 1.17521003e-01
    6.71719983e-02 -6.00310005e-02 -2.15050001e-02 -8.27689990e-02
    -1.00515999e-01 -1.20177999e-01 1.14403002e-01 2.24923998e-01
    1.10659003e-01 -2.96199997e-03 -7.93870017e-02 -1.22990003e-02
    -2.03799992e-03 -4.04860005e-02 1.76090002e-02 3.25639993e-02
    1.66397005e-01 1.35617003e-01 2.43209992e-02 -5.13090007e-02
    2.93799993e-02 2.88030002e-02 -5.72300004e-03 -3.83660011e-02
    -4.09619994e-02 1.94400002e-03 -2.83720009e-02 -1.03519997e-02
    -4.24260013e-02 1.10045001e-01 2.24365994e-01 1.30184993e-01
    4.52000007e-04 -1.09130004e-02 -1.45399999e-02 -1.28549999e-02
    3.16959992e-02 -1.01469997e-02 1.29319996e-01 2.82420993e-01
    2.84426987e-01 1.46929994e-01 1.97100011e-03 1.39229996e-02
    7.92299956e-03 1.78159997e-02 -5.41599989e-02 -2.53940001e-02
    -2.96260007e-02 -6.55099982e-03 3.70400003e-03 2.12180000e-02
    -3.00300005e-03 1.91750005e-02 6.79220036e-02 1.37369996e-02
    4.98399995e-02 5.63649982e-02 1.43179998e-01 1.16217002e-01
    4.24200017e-03 -6.43550009e-02 -6.68459982e-02 -3.24289985e-02
    -4.64890003e-02 -9.16399993e-03 1.06494002e-01 2.76928991e-01
    1.69700995e-01 5.57399988e-02 -2.47329995e-02 -8.16010013e-02
    -6.78730011e-02 -6.29469976e-02 -3.01489998e-02 3.02709993e-02
    1.80653006e-01 1.96022004e-01 3.90760005e-02 -5.29959984e-02
    -5.57559989e-02 8.20500031e-03 1.20900001e-03 -2.53499998e-03
    1.35770002e-02 1.32377997e-01 1.59084007e-01 1.45426005e-01
    6.43200008e-03 -6.24499992e-02 2.66720001e-02 2.55989991e-02
    2.87810005e-02 -1.88710000e-02 1.20985001e-01 2.04558998e-01
    4.32690009e-02 -2.62699998e-03 -8.70639980e-02 -9.47880000e-02
    -1.16543002e-01 -9.60889980e-02 -4.43320014e-02 9.92090032e-02
    1.42734006e-01 1.72537997e-01 1.52518004e-01 -5.75699983e-03
    -1.78440008e-02 -4.80070002e-02 -7.77099980e-03 1.80400000e-03
    1.47125006e-01 1.81511000e-01 1.17891997e-01 -9.59399994e-03
    -9.49330032e-02 -4.29150015e-02 -6.10259995e-02 -4.78739999e-02
    -9.25490037e-02 6.62099989e-03 1.11863002e-01 1.90145999e-01
    1.03164002e-01 -3.30159999e-02 -2.04070006e-02 -2.98810005e-02
    7.00200023e-03 -3.20999995e-02 5.94800003e-02 1.44058004e-01
    1.82205006e-01 1.34804994e-01 -9.77400038e-03 -5.01510017e-02
    -1.08566001e-01 -7.10280016e-02 -6.49489984e-02 3.35819982e-02
    8.39390010e-02 1.84039995e-01 2.08175004e-01 7.33300000e-02
    8.01299978e-03 -6.16700016e-02 -2.98020002e-02 -1.92130003e-02
    1.15489997e-02 6.35600016e-02 1.26468003e-01 6.23920001e-02
    -7.84230009e-02 -7.81690031e-02 -9.57470015e-02 -2.67539993e-02
    -4.66980003e-02 -1.77580006e-02 2.48150006e-02 6.96540028e-02
    5.76150008e-02 -1.06039997e-02 -8.10999982e-03 -1.77170001e-02
    8.48110020e-02 6.58219978e-02 2.24380009e-02 4.10299981e-03
    2.84109991e-02 1.57606006e-01 5.10560013e-02 -1.66270006e-02
    -7.22990036e-02 3.24480012e-02 4.86069992e-02 -2.40899995e-03
    -4.07999993e-04 -8.11299961e-03 8.41849968e-02 -5.95299993e-03
    -7.55470023e-02 -5.13119996e-02 7.11060017e-02 8.46799985e-02
    3.02460007e-02 -4.85149994e-02 -4.53349985e-02 1.53799998e-02
    -5.11890016e-02 -3.95379998e-02 -2.02079993e-02 1.25337005e-01
    9.47040021e-02 4.48709987e-02 -5.94029985e-02 -7.22760037e-02
    -6.87509999e-02 -1.57730997e-01 -1.19078003e-01 -2.90290006e-02
    1.54183000e-01 1.46922007e-01 8.78549963e-02 -5.34919985e-02
    -4.33943701e+00</SVMDetector></hog_head>
</opencv_storage>
